{"type":"NeuralNetwork","sizes":[12,10,10,1],"layers":[{"weights":[],"biases":[]},{"weights":[[0.10917948931455612,0.005651918239891529,0.09848924726247787,-0.24474790692329407,0.21296870708465576,0.22368422150611877,0.05688706785440445,0.18270930647850037,0.10623112320899963,0.14693820476531982,-0.20517705380916595,-0.24807295203208923],[0.16284511983394623,-0.029056914150714874,-0.304616242647171,-0.10784639418125153,0.1676344871520996,0.2062118500471115,0.03238387778401375,0.18308299779891968,-0.18731676042079926,0.11795642226934433,-0.059132762253284454,0.28728267550468445],[0.22759443521499634,0.09053364396095276,0.20873472094535828,-0.35455644130706787,0.061483293771743774,0.2662103772163391,0.23933672904968262,0.010188756510615349,-0.3149316906929016,0.32124853134155273,-0.11954263597726822,-0.5220907330513],[0.2750588357448578,0.19030220806598663,0.2608886957168579,-0.11472147703170776,-0.18062488734722137,0.11207980662584305,-0.20304150879383087,-0.03276422619819641,0.11819504201412201,-0.16296888887882233,-0.22950029373168945,-0.40769845247268677],[0.043346427381038666,0.27683714032173157,0.630138099193573,-0.12644623219966888,-0.12782257795333862,-0.10249236226081848,-0.11424136906862259,-0.24016469717025757,-0.1371389478445053,-0.13518711924552917,-0.03632848337292671,-0.8779724836349487],[-0.0554378516972065,0.062365561723709106,-0.15379345417022705,0.2305588573217392,0.14867469668388367,-0.14942336082458496,-0.18079698085784912,-0.14808036386966705,0.2705916464328766,-0.13261006772518158,-0.2826402485370636,1.6435062885284424],[0.0024453618098050356,-0.04002029821276665,0.18780702352523804,0.08594158291816711,0.04207095503807068,0.006062478758394718,-0.013785291463136673,-0.07531926780939102,0.28669440746307373,-0.11156865954399109,-0.23519954085350037,0.7494126558303833],[0.2314266860485077,0.28864455223083496,0.6680607795715332,-0.1313595026731491,-0.14207954704761505,0.03417902812361717,-0.144905686378479,0.004526681266725063,0.1515580266714096,-0.11611682176589966,-0.22856000065803528,-0.5509609580039978],[0.06501762568950653,-0.0500762015581131,-0.3339950144290924,0.022131986916065216,-0.07327932119369507,0.11573473364114761,0.2425735741853714,0.177709698677063,-0.03043469414114952,0.17300452291965485,0.18057312071323395,0.5195570588111877],[-0.0048312353901565075,0.17339719831943512,-0.010091254487633705,-0.12855374813079834,0.11856062710285187,0.15691833198070526,-0.0776088535785675,0.16255532205104828,0.10819584876298904,0.13797692954540253,-0.1340869963169098,0.01942114159464836]],"biases":[0.22066131234169006,-0.11124367266893387,0.3019530475139618,-0.0211198590695858,0.20110997557640076,-0.32385826110839844,-0.011789531446993351,0.13268528878688812,-0.1885077953338623,-0.18245644867420197]},{"weights":[[-0.15275995433330536,0.014692564494907856,-0.10863281786441803,-0.14562074840068817,-0.0018147277878597379,-0.12670543789863586,-0.07936929911375046,-0.19822347164154053,-0.07635998725891113,0.16027463972568512],[0.3345382809638977,0.0030428972095251083,0.40709105134010315,0.3226482570171356,-0.08936579525470734,-0.7272618412971497,-0.19968074560165405,0.4484916925430298,-0.28711169958114624,-0.1703493297100067],[0.17938511073589325,0.0602579228579998,-0.12120840698480606,-0.10907041281461716,0.028686312958598137,-0.16844049096107483,-0.1815468966960907,-0.12962783873081207,-0.07219050079584122,0.11159304529428482],[0.11913134157657623,-0.1999541074037552,0.4056737422943115,0.2968815565109253,-0.14434802532196045,-0.7628622651100159,-0.3525369167327881,0.4373002052307129,-0.16498324275016785,0.0682205781340599],[-0.18067650496959686,0.1658017784357071,0.04045417159795761,0.05228327959775925,-0.15686839818954468,0.1336267739534378,-0.09280512481927872,-0.16439512372016907,-0.0063744946382939816,0.13760818541049957],[0.1616291105747223,-0.11026038974523544,0.05593457818031311,-0.047431353479623795,0.01454793382436037,0.030905555933713913,-0.025523735210299492,-0.06423480063676834,-0.02692001685500145,-0.11723951995372772],[-0.05533318221569061,-0.054680243134498596,0.11385220289230347,0.00860472023487091,0.0635187104344368,-0.05157587677240372,-0.012142297811806202,-0.07348139584064484,-0.1992052048444748,-0.005589095409959555],[-0.054271310567855835,-0.1630042940378189,-0.035614196211099625,-0.11275704950094223,0.12720134854316711,-0.04763457551598549,-0.038556057959795,-0.04173782467842102,-0.1919822245836258,-0.17792604863643646],[0.27256718277931213,-0.21434755623340607,0.3826959729194641,0.34933045506477356,0.684782862663269,-0.6308029294013977,0.07096446305513382,0.726380467414856,-0.4399373531341553,0.06199939548969269],[0.012096676975488663,0.10295801609754562,0.16219384968280792,-0.1830914467573166,-0.36053019762039185,-0.028400782495737076,-0.03895092383027077,-0.23401299118995667,0.17231996357440948,0.03957338631153107]],"biases":[-0.1273462027311325,0.3587738871574402,-0.1348945051431656,0.5440921187400818,-0.17108717560768127,-0.10601034760475159,-0.09288447350263596,-0.1337970644235611,0.4057959318161011,0.2056845873594284]},{"weights":[[0.07379855215549469,-0.6304638385772705,0.013105844147503376,-0.6801170706748962,0.026693016290664673,-0.1091235801577568,0.12899252772331238,-0.05986405909061432,0.8203059434890747,-0.16680915653705597]],"biases":[0.5005454421043396]}],"inputLookup":{"year":0,"mercedes":1,"redbull":2,"mclaren":3,"alpine":4,"haas":5,"RB":6,"kicksauber":7,"ferrari":8,"williams":9,"astonmartin":10,"points":11},"inputLookupLength":12,"outputLookup":{"nextYearPoints":0},"outputLookupLength":1,"options":{"inputSize":0,"outputSize":0,"binaryThresh":0.5,"hiddenLayers":[10,10],"activation":"relu"},"trainOpts":{"activation":"relu","iterations":3000,"errorThresh":0.005,"log":true,"logPeriod":100,"leakyReluAlpha":0.01,"learningRate":0.05,"momentum":0.1,"callbackPeriod":10,"timeout":"Infinity","beta1":0.9,"beta2":0.999,"epsilon":1e-8}}