{"type":"NeuralNetwork","sizes":[4,10,10,1],"layers":[{"weights":[],"biases":[]},{"weights":[[0.30103838443756104,0.08814819902181625,0.004810732789337635,-1.0522509813308716],[0.26520782709121704,0.02159411460161209,-0.04448407143354416,-0.6522777676582336],[-0.11407583951950073,-0.035668227821588516,-0.04692305251955986,-0.15164193511009216],[0.2997886836528778,-0.028785044327378273,-0.03978902846574783,-1.466037631034851],[0.16248179972171783,0.23316961526870728,0.535086452960968,0.13073085248470306],[-0.015264177694916725,0.059645988047122955,0.3860592246055603,0.25132378935813904],[-0.06464415043592453,0.247510626912117,-0.13553954660892487,0.45514217019081116],[0.11284959316253662,0.21579813957214355,-0.005674998741596937,-0.5241449475288391],[-0.12128253281116486,-0.1240493506193161,0.052279215306043625,-0.1837298572063446],[-0.0004245141753926873,0.08833108842372894,0.4663693606853485,0.9841579794883728]],"biases":[0.39425337314605713,0.19699931144714355,-0.04029010608792305,0.2606604993343353,-0.16805700957775116,0.0075271776877343655,-0.20520861446857452,0.19335754215717316,-0.031429875642061234,0.008488507941365242]},{"weights":[[0.12754398584365845,-0.11781521886587143,-0.1907278150320053,-0.12293438613414764,-0.14002178609371185,-0.10773079842329025,0.09565837681293488,0.04147539660334587,-0.02278645895421505,0.029572127386927605],[-0.39426153898239136,-0.3162480294704437,0.13711652159690857,0.11181356757879257,-0.09541305899620056,0.16558948159217834,-0.17966881394386292,-0.563244640827179,0.18533366918563843,0.36844512820243835],[-0.05740221589803696,0.15013015270233154,-0.03382626548409462,-0.12752287089824677,-0.001050985767506063,0.05360064283013344,-0.19707798957824707,-0.18402597308158875,-0.14224599301815033,-0.18978680670261383],[-0.16482877731323242,0.06526794284582138,0.05775952711701393,0.16848737001419067,0.07471083849668503,0.00031290200422517955,-0.05683721601963043,-0.14993801712989807,0.04554169252514839,0.09442324191331863],[0.244585782289505,0.11604632437229156,-0.17219968140125275,-0.4646735191345215,0.20513582229614258,0.06809244304895401,0.11536527425050735,0.1422669142484665,0.08812884986400604,-0.2665747404098511],[0.04335527494549751,-0.17987067997455597,-0.10962235182523727,-0.42415812611579895,-0.02385890483856201,0.2379745990037918,0.17041632533073425,0.08376883715391159,0.012435599230229855,0.11846145242452621],[0.3425300717353821,0.140390545129776,0.11117175221443176,0.18201294541358948,-0.07532310485839844,-0.11125270277261734,-0.15544503927230835,0.20118673145771027,0.18716168403625488,-0.5327399373054504],[0.10635572671890259,-0.029171047732234,-0.007659586146473885,0.37851566076278687,-0.07414369285106659,0.1461135745048523,0.01229710504412651,0.06549941003322601,-0.09559568017721176,-0.06333348900079727],[-0.01806803047657013,-0.026854418218135834,-0.09629002958536148,-0.7945287823677063,0.32065123319625854,0.10689514875411987,0.28177857398986816,0.06839767098426819,-0.04410858452320099,0.07837946712970734],[-0.8949645161628723,-0.4921506643295288,0.07083787024021149,0.03840386122465134,0.03387884423136711,-0.028682153671979904,0.22886042296886444,0.07214070856571198,0.15217532217502594,0.24385204911231995]],"biases":[-0.1300690621137619,-0.2650635838508606,0.012371109798550606,0.034601446241140366,0.10526301711797714,0.24620413780212402,-0.37258127331733704,0.029988670721650124,0.40540778636932373,-0.0304570235311985]},{"weights":[[-0.06485465914011002,0.851010799407959,0.1334206759929657,-0.0738823190331459,0.3536129891872406,0.24166500568389893,-0.5579246878623962,-0.14736782014369965,0.430502325296402,0.8533362150192261]],"biases":[0.0770595446228981]}],"inputLookup":{"year":0,"mercedes":1,"redbull":2,"points":3},"inputLookupLength":4,"outputLookup":{"nextYearPoints":0},"outputLookupLength":1,"options":{"inputSize":0,"outputSize":0,"binaryThresh":0.5,"hiddenLayers":[10,10],"activation":"relu"},"trainOpts":{"activation":"relu","iterations":3000,"errorThresh":0.005,"log":false,"logPeriod":100,"leakyReluAlpha":0.01,"learningRate":0.05,"momentum":0.1,"callbackPeriod":10,"timeout":"Infinity","beta1":0.9,"beta2":0.999,"epsilon":1e-8}}