{"type":"NeuralNetwork","sizes":[4,10,10,1],"layers":[{"weights":[],"biases":[]},{"weights":[[-0.10302417725324631,0.3592802882194519,0.814338743686676,0.288155198097229],[-0.021573280915617943,-0.0744800940155983,-0.035082221031188965,0.6229197978973389],[-0.1648852825164795,0.27623164653778076,0.5451130867004395,0.8035035133361816],[0.35529980063438416,-0.0597936250269413,-0.0866001546382904,-0.6268280744552612],[-0.0626562237739563,0.18075032532215118,-0.0823788270354271,-0.260816365480423],[-0.053399428725242615,0.038078922778367996,-0.003489038208499551,1.4116343259811401],[-0.0993676707148552,0.1393706053495407,-0.12400829046964645,-0.05459548532962799],[-0.10046270489692688,0.18928058445453644,-0.13289713859558105,0.08191882818937302],[-0.10588695108890533,-0.051548536866903305,0.10908473283052444,-0.14383837580680847],[0.23965473473072052,0.06268884241580963,0.1633097231388092,-0.876922070980072]],"biases":[0.09336274862289429,0.014571154490113258,0.1525605022907257,0.2793835997581482,0.08181926608085632,0.037002094089984894,-0.13935674726963043,-0.19565971195697784,0.030701814219355583,0.36939647793769836]},{"weights":[[0.09790483862161636,0.054076097905635834,-0.039147790521383286,0.17873471975326538,0.06124434247612953,-0.27831706404685974,-0.051682498306035995,0.0407242551445961,0.030165640637278557,0.1761607825756073],[0.3352087438106537,-0.044033437967300415,0.25579962134361267,-0.3063492476940155,-0.21808576583862305,0.06628476083278656,0.038861896842718124,-0.12529166042804718,0.1946313977241516,-0.18002963066101074],[0.29574844241142273,-0.20880888402462006,0.09481574594974518,0.03608814254403114,-0.11675891280174255,-0.3336239457130432,-0.19262807071208954,-0.08590468764305115,0.08876318484544754,0.32404395937919617],[-0.14413999021053314,-0.11118551343679428,0.1169000044465065,-0.02137610875070095,-0.004335795994848013,0.12823928892612457,-0.15499712526798248,0.11911597102880478,0.116988904774189,0.062049515545368195],[0.061587803065776825,-0.15039466321468353,-0.0015724519034847617,-0.19426734745502472,-0.06485023349523544,0.028492888435721397,0.028445079922676086,0.03534557297825813,0.14551180601119995,-0.03982003405690193],[-0.2651386260986328,0.14523091912269592,0.15127740800380707,-0.08500349521636963,0.016604004427790642,0.5675089359283447,-0.017572157084941864,0.036399755626916885,-0.05546756833791733,-0.04825985059142113],[-0.16063271462917328,-0.18770915269851685,-0.10746335238218307,-0.11075840145349503,0.16290415823459625,0.043798841536045074,0.1927933543920517,-0.04402117803692818,0.057100363075733185,0.17633607983589172],[0.010219136252999306,-0.12462767213582993,0.1782587617635727,0.030373016372323036,-0.1183973178267479,-0.1795165240764618,-0.10423264652490616,-0.13614477217197418,0.165985107421875,0.013659777119755745],[0.24181289970874786,0.14649173617362976,0.2002415806055069,-0.03887401148676872,-0.11895471066236496,-0.09116342663764954,-0.13053177297115326,-0.12852437794208527,0.13431285321712494,-0.17653271555900574],[-0.11088233441114426,-0.4212992191314697,-0.3277253806591034,0.17115959525108337,-0.11586999148130417,-0.7069973945617676,0.17455534636974335,0.17774726450443268,0.12060770392417908,0.41292741894721985]],"biases":[0.24962322413921356,0.2911631464958191,-0.21512171626091003,-0.17076723277568817,0.1443830132484436,-0.6532064080238342,-0.10955469310283661,-0.11352718621492386,0.12532055377960205,0.4071643352508545]},{"weights":[[-0.22911053895950317,0.32647430896759033,0.558219850063324,-0.05355790629982948,0.05688781291246414,-0.737129807472229,-0.14235907793045044,0.15934237837791443,0.18943405151367188,-0.32445743680000305]],"biases":[0.35460346937179565]}],"inputLookup":{"year":0,"mercedes":1,"redbull":2,"points":3},"inputLookupLength":4,"outputLookup":{"nextYearPoints":0},"outputLookupLength":1,"options":{"inputSize":0,"outputSize":0,"binaryThresh":0.5,"hiddenLayers":[10,10],"activation":"relu"},"trainOpts":{"activation":"relu","iterations":3000,"errorThresh":0.005,"log":true,"logPeriod":100,"leakyReluAlpha":0.01,"learningRate":0.05,"momentum":0.1,"callbackPeriod":10,"timeout":"Infinity","beta1":0.9,"beta2":0.999,"epsilon":1e-8}}