{"type":"NeuralNetwork","sizes":[4,10,10,1],"layers":[{"weights":[],"biases":[]},{"weights":[[-0.015606761910021305,-0.003985179588198662,0.05366772040724754,0.07545658946037292],[-0.012048853561282158,-0.19495528936386108,-0.0031821264419704676,-0.13359269499778748],[0.07281540334224701,0.10583899915218353,0.4021243155002594,-0.17344872653484344],[0.5138654112815857,0.018040837720036507,0.01900522969663143,-1.268337607383728],[0.11369837820529938,-0.04241136461496353,-0.10592170059680939,-0.0948263555765152],[0.1303880363702774,0.1805294007062912,0.5491483211517334,0.9843119382858276],[-0.19018253684043884,-0.011192139238119125,0.19393150508403778,-0.008673572912812233],[0.29574787616729736,-0.0922340452671051,-0.04728672653436661,-0.9521551132202148],[0.09673035889863968,0.015233747661113739,0.030582770705223083,-0.26782935857772827],[-0.12284404784440994,0.03628373518586159,0.06571769714355469,-0.1676587015390396]],"biases":[-0.19592233002185822,0.011771825142204762,-0.07299447804689407,0.4359126091003418,0.011099761351943016,-0.14463694393634796,-0.07536976784467697,0.43172487616539,0.13869206607341766,0.08055681735277176]},{"weights":[[-0.021361226215958595,0.18281851708889008,-0.11417142301797867,-0.05870687589049339,-0.0645679235458374,-0.052201684564352036,-0.10114430636167526,-0.12886232137680054,-0.10160654783248901,0.04506228119134903],[0.059772491455078125,0.06349523365497589,0.05181349068880081,-0.05610755458474159,-0.11673909425735474,0.009236904792487621,-0.15115128457546234,0.04582953453063965,-0.166101336479187,0.14731012284755707],[0.11907005310058594,-0.17368321120738983,0.17286336421966553,-0.09148577600717545,0.06084825471043587,-0.059617992490530014,-0.04604540020227432,-0.15173763036727905,0.06218684837222099,0.07883200794458389],[0.1737462431192398,-0.18901604413986206,-0.058828018605709076,0.19706054031848907,0.0012100816238671541,-0.09746485203504562,-0.09896571934223175,-0.0720067024230957,-0.17653818428516388,0.05836911126971245],[0.1642054170370102,0.11494095623493195,-0.01129420567303896,-0.08271016925573349,-0.19221338629722595,0.009005250409245491,0.17317081987857819,0.09495271742343903,-0.10886142402887344,-0.15082122385501862],[-0.12951278686523438,-0.08325627446174622,-0.17416557669639587,0.3580555021762848,-0.005666084587574005,-0.25990429520606995,-0.17928069829940796,0.25258561968803406,0.1701478660106659,0.09567636251449585],[-0.08899468928575516,-0.07327882200479507,-0.05206230655312538,-0.056267865002155304,0.012601020745933056,-0.01959053799510002,-0.07707702368497849,-0.09670517593622208,0.014084219001233578,-0.158567413687706],[0.15428225696086884,0.02632138319313526,-0.2219194918870926,0.043282024562358856,0.2155386507511139,-0.2670401632785797,-0.02702089585363865,0.027708647772669792,0.28595295548439026,0.022034021094441414],[0.039648815989494324,0.05219045653939247,0.18165265023708344,-0.43465131521224976,0.021124491468071938,0.13826961815357208,0.1999243050813675,-0.24061250686645508,0.3064464330673218,0.05924946814775467],[-0.07071184366941452,-0.08819297701120377,0.1803997904062271,0.02255723997950554,0.13658030331134796,-0.015113450586795807,0.0804804265499115,-0.151776522397995,-0.10105525702238083,0.0631984993815422]],"biases":[0.011100875213742256,-0.08647261559963226,0.16973896324634552,-0.09227442741394043,-0.0766359493136406,0.400587260723114,-0.1710706204175949,0.23054763674736023,0.49672389030456543,0.09267647564411163]},{"weights":[[-0.012436320073902607,-0.02475058101117611,0.08186300843954086,0.1519203633069992,0.13237108290195465,-0.4737532138824463,0.013438958674669266,-0.22456485033035278,0.31753861904144287,0.05274517834186554]],"biases":[0.5666543841362]}],"inputLookup":{"year":0,"mercedes":1,"redbull":2,"points":3},"inputLookupLength":4,"outputLookup":{"nextYearPoints":0},"outputLookupLength":1,"options":{"inputSize":0,"outputSize":0,"binaryThresh":0.5,"hiddenLayers":[10,10],"activation":"relu"},"trainOpts":{"activation":"relu","iterations":3000,"errorThresh":0.005,"log":true,"logPeriod":100,"leakyReluAlpha":0.01,"learningRate":0.05,"momentum":0.1,"callbackPeriod":10,"timeout":"Infinity","beta1":0.9,"beta2":0.999,"epsilon":1e-8}}