{"type":"NeuralNetwork","sizes":[27,13,1],"layers":[{"weights":[],"biases":[]},{"weights":[[-0.07770077139139175,0.05963363125920296,-0.0034796958789229393,-0.06562289595603943,0.15346890687942505,0.10362281650304794,-0.16307280957698822,-0.14309337735176086,-0.04642808437347412,-0.06585128605365753,-0.041834983974695206,0.11123299598693848,-0.08480384200811386,-0.013880563899874687,0.1436557024717331,0.1216755360364914,-0.018963459879159927,0.07306423783302307,-0.009871968068182468,0.056113842874765396,-0.0993480533361435,-0.0810629352927208,-0.025067122653126717,-0.08156035095453262,-0.14070741832256317,-0.0916684940457344,0.27771320939064026],[-0.0330205000936985,-0.1747809499502182,-0.4661928415298462,0.08770254999399185,0.07688996195793152,0.14078371226787567,0.10323527455329895,0.2237468957901001,0.27373939752578735,0.15382248163223267,-0.03816952928900719,-0.31423938274383545,-0.010022932663559914,0.0973542258143425,-0.1935102790594101,0.30524182319641113,-0.0989450067281723,0.07115639001131058,0.09337029606103897,0.30989107489585876,-0.03312023729085922,-0.09561344981193542,0.06436787545681,-0.16275723278522491,-0.003513047704473138,-0.131942480802536,0.40573546290397644],[0.05107303336262703,-0.052145734429359436,0.1707087606191635,0.011929278261959553,-0.18215058743953705,-0.009525975212454796,-0.1940537542104721,-0.1551622897386551,0.053988199681043625,0.13284526765346527,-0.06867080926895142,0.09901439398527145,0.10444923490285873,-0.07786721736192703,-0.029292535036802292,-0.042873483151197433,0.02990640513598919,0.0564238615334034,0.05736047774553299,0.09470012038946152,0.016964025795459747,0.08870599418878555,-0.12886585295200348,-0.00904796551913023,0.12361408770084381,-0.007391538005322218,-0.02584788203239441],[-0.16036440432071686,0.11543448269367218,-0.1474180817604065,-0.1083085685968399,-0.13118669390678406,0.07605484873056412,0.15456606447696686,0.19017599523067474,0.0872974619269371,0.15973006188869476,0.018114347010850906,-0.10378577560186386,0.07825499773025513,0.003935466520488262,-0.13322795927524567,-0.055778637528419495,-0.08074319362640381,-0.1657564789056778,-0.006527008023113012,0.0430176705121994,0.07197622954845428,-0.024393275380134583,0.09637164324522018,-0.006925481371581554,-0.07930009812116623,0.16832171380519867,0.2121410220861435],[-0.1088993102312088,-0.2686641812324524,-0.4262959361076355,0.015373704954981804,0.08215367794036865,0.056519512087106705,0.10227344185113907,0.2578284442424774,0.007029320113360882,0.02840239182114601,0.00776294618844986,-0.0800362303853035,-0.29229292273521423,0.20608530938625336,0.03948978707194328,0.4012121558189392,-0.012521915137767792,-0.26227977871894836,0.16928698122501373,0.2336347997188568,0.19515849649906158,-0.13097460567951202,0.06021103262901306,0.06650502979755402,-0.025059109553694725,0.09763481467962265,0.33218199014663696],[0.156357541680336,0.06518765538930893,0.2695328891277313,-0.18034851551055908,0.04919922724366188,0.025637956336140633,0.08710555732250214,-0.16365757584571838,0.10724153369665146,-0.057647328823804855,-0.026762288063764572,0.257794588804245,-0.05894693732261658,-0.09596144407987595,0.0047060903161764145,-0.10006678104400635,0.0964602455496788,-0.009490853175520897,-0.175705224275589,-0.1722206026315689,-0.18698088824748993,-0.113642118871212,-0.08914575725793839,0.0735083818435669,0.03507605195045471,-0.1294988989830017,-0.13956645131111145],[0.12719355523586273,0.07352786511182785,0.27006661891937256,0.009754076600074768,-0.15036490559577942,-0.1859680563211441,0.19620293378829956,0.1587364822626114,-0.14161935448646545,-0.18602091073989868,-0.1780867576599121,-0.06803842633962631,-0.08927232027053833,0.02976991981267929,0.1793767213821411,-0.008427616208791733,0.040664348751306534,-0.07818809896707535,-0.16646145284175873,-0.06808751821517944,-0.17393670976161957,0.20155447721481323,0.11891787499189377,-0.0022906914819031954,-0.03862505778670311,-0.10230696946382523,-0.19447602331638336],[0.18195298314094543,0.05005530267953873,-0.17418476939201355,0.10729190707206726,0.14595739543437958,-0.13975027203559875,-0.04817371070384979,-0.13816963136196136,-0.1718788594007492,0.12181025743484497,-0.05108458176255226,-0.09005178511142731,0.0860089361667633,0.19112884998321533,0.19672434031963348,-0.011284615844488144,0.08939065039157867,-0.19561868906021118,-0.018419478088617325,-0.14477093517780304,-0.1918962299823761,-0.16704945266246796,0.20034290850162506,-0.14930985867977142,-0.17343278229236603,-0.03925922140479088,-0.03985147178173065],[0.05246495455503464,-0.06499677151441574,-0.4704952538013458,-0.06675655394792557,0.052030086517333984,-0.05538199841976166,-0.1749768853187561,0.22269193828105927,0.2825748920440674,-0.11524493247270584,-0.12717631459236145,-0.31676235795021057,-0.2720463275909424,-0.09370489418506622,-0.1560402810573578,0.5417823195457458,-0.17104865610599518,-0.01337551698088646,0.13748300075531006,0.31588539481163025,0.3677659034729004,-0.3303697109222412,-0.05829646438360214,-0.033586952835321426,0.30486562848091125,-0.10885342955589294,0.30138158798217773],[-0.001836456824094057,-0.0038756185676902533,0.2196536809206009,0.12823496758937836,-0.08076854050159454,-0.033164482563734055,-0.10373754799365997,-0.009932853281497955,-0.052312519401311874,-0.1596507728099823,0.17457345128059387,-0.06221259757876396,0.15206243097782135,-0.15860657393932343,-0.07685332745313644,0.13272568583488464,0.11588715016841888,0.15382294356822968,-0.0621299184858799,-0.11995144933462143,-0.11755367368459702,0.026881994679570198,-0.14989106357097626,0.0725829228758812,0.11501433700323105,0.07243292033672333,-0.18099911510944366],[0.037415504455566406,-0.12139450013637543,-0.07406790554523468,-0.10168874263763428,0.15683867037296295,0.10685239732265472,0.003910996951162815,-0.04040743410587311,0.08271992206573486,-0.13266897201538086,-0.16602368652820587,-0.016478393226861954,-0.23399357497692108,0.16609002649784088,-0.15488974750041962,0.14120347797870636,-0.00792799424380064,0.04499201104044914,-0.030593132600188255,0.20809496939182281,0.14638389647006989,-0.2663882374763489,-0.11157242953777313,-0.05738411098718643,-0.02851315587759018,0.08527027815580368,0.27088892459869385],[-0.1764640063047409,-0.15580759942531586,-0.03384323790669441,0.11217934638261795,0.06641533970832825,-0.05456628277897835,0.13656888902187347,0.07996082305908203,0.1543068140745163,-0.036240849643945694,0.10166681557893753,-0.07686977833509445,0.012666651047766209,0.04753011465072632,-0.010953341610729694,-0.013145857490599155,-0.021888183429837227,-0.03651959076523781,-0.07428047806024551,0.06478457152843475,-0.14845503866672516,-0.17084962129592896,0.1345350742340088,0.0173981711268425,0.06969475001096725,0.07090665400028229,0.0862642452120781],[0.0146637549623847,-0.12258648127317429,-0.13249780237674713,0.16457599401474,-0.10877476632595062,0.01006053201854229,-0.16081708669662476,-0.12895892560482025,-0.05054095759987831,0.05297190696001053,0.06893913447856903,-0.07418997585773468,-0.1798921674489975,0.14116160571575165,-0.203207865357399,0.05867142230272293,-0.20466314256191254,-0.01246898528188467,-0.07004250586032867,0.22074051201343536,0.0717545598745346,-0.1422109305858612,-0.08668678998947144,0.08156023919582367,-0.11308487504720688,-0.0042556896805763245,0.03956017270684242]],"biases":[-0.07613498717546463,-0.1095941886305809,0.1800389140844345,0.1274378001689911,0.052348047494888306,-0.11855655163526535,0.036343254148960114,-0.0003376263193786144,0.027629582211375237,-0.1905159205198288,0.0067229666747152805,0.041838809847831726,0.053602185100317]},{"weights":[[0.09266307950019836,0.786832332611084,-0.14842134714126587,0.061237435787916183,0.7888259887695312,-0.42916643619537354,-0.44141870737075806,-0.14644275605678558,1.0752415657043457,-0.26282912492752075,0.4263995289802551,0.016658863052725792,0.20893438160419464]],"biases":[-0.03267575427889824]}],"inputLookup":{"las_vegas":0,"spain":1,"austria":2,"sakhir":3,"bahrain":4,"saudi_arabia":5,"australia":6,"japan":7,"china":8,"miami":9,"emilia_romagna":10,"monaco":11,"canada":12,"great_britain":13,"hungary":14,"belgium":15,"netherlands":16,"italy":17,"azerbaijan":18,"singapore":19,"united_states":20,"mexico":21,"brazil":22,"qatar":23,"abu_dhabi":24,"year":25,"fastest_lap_time_millis":26},"inputLookupLength":27,"outputLookup":{"fastestLapNextYear":0},"outputLookupLength":1,"options":{"inputSize":0,"outputSize":0,"binaryThresh":0.5},"trainOpts":{"activation":"sigmoid","iterations":3000,"errorThresh":0.005,"log":true,"logPeriod":100,"leakyReluAlpha":0.01,"learningRate":0.02,"momentum":0.1,"callbackPeriod":10,"timeout":"Infinity","beta1":0.9,"beta2":0.999,"epsilon":1e-8}}