{"type":"NeuralNetwork","sizes":[26,13,1],"layers":[{"weights":[],"biases":[]},{"weights":[[-0.062341682612895966,0.04274722933769226,-0.12167521566152573,0.01085485890507698,0.22102239727973938,-0.029808305203914642,0.1508888453245163,-0.03248642385005951,-0.06185099110007286,0.04837722331285477,0.05822141468524933,-0.05048234015703201,0.07368152588605881,0.12336568534374237,0.25794705748558044,-0.22296011447906494,-0.020680924877524376,-0.006960053462535143,-0.13283716142177582,-0.023299312219023705,0.07361175119876862,-0.13018319010734558,-0.1381804496049881,-0.15096688270568848,-0.15726087987422943,0.03973277658224106],[0.15900647640228271,-0.04120076820254326,0.06669245660305023,0.17405769228935242,-0.10573988407850266,-0.10002650320529938,-0.13631567358970642,-0.1139196902513504,0.025841228663921356,0.07770584523677826,0.07390553504228592,-0.004122899379581213,-0.13875354826450348,0.04430052638053894,0.12755051255226135,0.18715570867061615,0.1520182341337204,0.042930033057928085,0.07813993841409683,0.12584185600280762,-0.08129575848579407,0.15445010364055634,0.17945323884487152,-0.19199088215827942,-0.008446361869573593,-0.007191577460616827],[0.0336260087788105,-0.06076427921652794,-0.09629487991333008,-0.07073439657688141,-0.03203634172677994,0.12203022837638855,-0.18826696276664734,-0.17810572683811188,-0.09488474577665329,0.07122913002967834,-0.07446350157260895,-0.07373915612697601,0.046917542815208435,-0.05743618682026863,0.010842792689800262,-0.05738868936896324,-0.19059811532497406,0.00915765855461359,-0.16089677810668945,0.0914931371808052,0.17499607801437378,-0.11368831992149353,0.08007298409938812,0.15058141946792603,-0.1821998953819275,-0.06481961905956268],[0.010481302626430988,-0.279747873544693,-0.6102150082588196,0.12835364043712616,0.15490907430648804,-0.24775296449661255,0.20961198210716248,-0.11989929527044296,-0.07826163619756699,-0.27571263909339905,-0.19976076483726501,-0.10068874061107635,-0.10103606432676315,-0.28744077682495117,0.29498589038848877,-0.2262633591890335,-0.18807505071163177,0.45204755663871765,0.27564433217048645,0.17103837430477142,-0.26153984665870667,-0.06747035682201385,-0.07146158069372177,0.18555673956871033,0.06542839854955673,0.32736700773239136],[0.07802511751651764,0.07086923718452454,0.12158304452896118,0.018624568358063698,-0.16059453785419464,0.08971913903951645,0.14041489362716675,-0.027583308517932892,0.18491718173027039,-0.06465531140565872,-0.03276960551738739,0.036081984639167786,0.13513699173927307,0.0939127653837204,-0.17596183717250824,-0.01639849878847599,0.16369427740573883,-0.07343652099370956,-0.15700215101242065,-0.08214756101369858,0.04278888553380966,-0.10657201707363129,0.06877349317073822,-0.1523468941450119,0.04016194865107536,-0.005829975940287113],[-0.07412359118461609,0.017679477110505104,-0.10459981113672256,-0.1312575489282608,0.13653919100761414,-0.1600828766822815,-0.02172715589404106,0.18794390559196472,-0.16427206993103027,-0.11017581075429916,0.017941849306225777,-0.13099978864192963,0.20346283912658691,-0.15595029294490814,0.021820135414600372,0.10298172384500504,0.10928674042224884,0.16132691502571106,-0.02468918077647686,0.021094365045428276,0.023206640034914017,-0.003761264495551586,-0.0820770263671875,-0.10275721549987793,0.15719693899154663,-0.014942806214094162],[0.09241841733455658,0.05625288188457489,0.08202780038118362,-0.17761652171611786,0.007492011412978172,0.14633767306804657,-0.12157812714576721,-0.16430306434631348,-0.16244162619113922,-0.1223282665014267,-0.0025585994590073824,-0.005577977281063795,-0.18737146258354187,0.17974284291267395,-0.2518359422683716,0.0539189875125885,-0.10324762761592865,-0.1596977859735489,-0.02788940630853176,-0.06354634463787079,0.038804586976766586,-0.11495090276002884,0.08128754049539566,-0.1938370317220688,0.015728315338492393,0.10511046648025513],[0.2084100842475891,-0.02268226072192192,-0.4462510049343109,-0.04121975600719452,-0.11322798579931259,-0.12145212292671204,-0.03184908255934715,-0.14758151769638062,0.19996994733810425,0.07040279358625412,-0.026916369795799255,-0.04423133656382561,-0.04289821535348892,-0.2553083896636963,0.18356800079345703,-0.082401342689991,-0.09538675844669342,0.12540403008460999,0.2807741165161133,0.17720820009708405,-0.13047124445438385,-0.16951332986354828,-0.1820441484451294,-0.03621617332100868,-0.015748679637908936,0.42444509267807007],[0.004480962175875902,-0.07774533331394196,0.07298704236745834,-0.13767161965370178,-0.010454265400767326,-0.20658719539642334,-0.006002379581332207,0.04004949331283569,-0.1835760623216629,0.06970017403364182,-0.2307910919189453,0.08986959606409073,0.12230172753334045,0.02845880202949047,0.2881702482700348,-0.025681329891085625,-0.12462171912193298,-0.11651686578989029,-0.0034902533516287804,-0.06880336999893188,0.11846814304590225,-0.12630850076675415,-0.18240274488925934,-0.053960170596838,-0.06409139931201935,0.05977862700819969],[0.1494339108467102,-0.22689655423164368,-0.14537489414215088,0.09576968103647232,-0.09430601447820663,0.12848080694675446,0.23094817996025085,-0.11627201735973358,-0.12877437472343445,-0.2761616110801697,-0.20237573981285095,-0.29856351017951965,0.14771480858325958,-0.20657505095005035,0.24412158131599426,-0.1625119298696518,0.15568388998508453,0.03432951495051384,0.25219258666038513,0.22237122058868408,-0.18542443215847015,-0.12648527324199677,0.18408454954624176,0.22984091937541962,-0.0017922944389283657,0.180160254240036],[0.047632768750190735,0.17817996442317963,0.11152847111225128,0.03229246661067009,0.15610411763191223,-0.18834565579891205,-0.053907763212919235,0.08144903928041458,-0.07955725491046906,0.15492168068885803,-0.00649957126006484,-0.1194167286157608,0.15246641635894775,0.10939880460500717,-0.011257115751504898,-0.127090722322464,0.14727750420570374,0.18609017133712769,-0.00461144233122468,0.09905028343200684,-0.14193694293498993,-0.09048190712928772,0.128037691116333,0.16281619668006897,-0.030601711943745613,-0.18746595084667206],[-0.09954790771007538,0.2049855887889862,0.23627164959907532,-0.07839098572731018,-0.16910678148269653,-0.07675577700138092,0.13532808423042297,-0.13489052653312683,0.06231609731912613,0.1506887674331665,-0.04516488313674927,0.17180313169956207,0.1177547425031662,0.04744754359126091,-0.16595569252967834,0.11923356354236603,0.10800139605998993,0.035757847130298615,-0.051703114062547684,-0.11052678525447845,-0.008711340837180614,0.11091340333223343,0.2050824761390686,-0.2086150348186493,-0.02217148244380951,-0.16372601687908173],[0.1037989929318428,-0.14822246134281158,-0.2682356536388397,0.06599318236112595,-0.09388592839241028,-0.24491266906261444,-0.0698792114853859,-0.1545734852552414,-0.16385230422019958,-0.11246227473020554,-0.3265436291694641,-0.28634071350097656,0.21200549602508545,-0.0548928864300251,0.08055002987384796,-0.09226623177528381,0.042320966720581055,0.3954916000366211,0.17339642345905304,0.11078386008739471,-0.19139190018177032,0.12571190297603607,-0.11926794052124023,-0.08168414235115051,0.04154819995164871,0.0538729690015316]],"biases":[-0.11109649389982224,0.12050008773803711,-0.07892473042011261,-0.05987203121185303,-0.17771556973457336,0.09679523855447769,-0.14997738599777222,-0.20897851884365082,-0.19712364673614502,0.03843650221824646,0.1914954036474228,0.02103939838707447,0.13937878608703613]},{"weights":[[0.19500060379505157,-0.09896004945039749,-0.09059169143438339,1.0588682889938354,-0.2664339542388916,0.09705010056495667,-0.33967211842536926,0.6530368328094482,0.10008592903614044,0.6286636590957642,-0.07683221995830536,-0.42532435059547424,0.5830444097518921]],"biases":[0.048382293432950974]}],"inputLookup":{"las_vegas":0,"spain":1,"austria":2,"bahrain":3,"saudi_arabia":4,"australia":5,"japan":6,"china":7,"miami":8,"emilia_romagna":9,"monaco":10,"canada":11,"great_britain":12,"hungary":13,"belgium":14,"netherlands":15,"italy":16,"azerbaijan":17,"singapore":18,"united_states":19,"mexico":20,"brazil":21,"qatar":22,"abu_dhabi":23,"year":24,"fastest_lap_time_millis":25},"inputLookupLength":26,"outputLookup":{"fastestLapNextYear":0},"outputLookupLength":1,"options":{"inputSize":0,"outputSize":0,"binaryThresh":0.5},"trainOpts":{"activation":"sigmoid","iterations":3000,"errorThresh":0.005,"log":true,"logPeriod":100,"leakyReluAlpha":0.01,"learningRate":0.02,"momentum":0.1,"callbackPeriod":10,"timeout":"Infinity","beta1":0.9,"beta2":0.999,"epsilon":1e-8}}